{"weights": [-0.0010576643640726304, -0.02782529289334259, 0.008565592800820117, 0.02031736445671603, -0.0010787221791681836, 0.005044954471231339, -0.0024829082991422603, -0.0014833239929303358, 0.00208349946056174, -0.006253982759296646, -0.0027154073949936736, 0.006885890693754899, -0.0038523153172296755, -0.0077730930448151915, 0.006541916802494444, 0.005083491559598676, -0.003165255934362337, 0.004841511768904575, -0.007751817286267629, 0.0060755614516619155, -0.007397971179889992, 0.0003611076739030626, 0.005928794700339616, 0.001108068805732831, -0.005331303997847, 0.004727279914476279, -0.005391950371323857, 0.005995974454683234, -0.004540089464518423, 0.006926601833551277, -0.0031617096623508625, 0.0007751972933875611, -0.001087367548023759, 0.0035014261658527896, -0.011829190069407943, 0.009415131451581672, 0.008894015649575147, 0.00516457291689456, -0.015579683772159946, 0.0015210952056436383, 0.009667564489621768, -0.004279226979968172, -0.0007238233131266009, -0.004664514196593161, 0.010622300710099088, 0.0010982617008410554, -0.013379033189097283, 0.001658470778071644, -0.005870492366619427, 0.006264419884129288, -0.004291426089612815, 0.0038974985720351607, 0.0081129850273948, -0.006161784142088469, -0.024520881503071832, 0.022569680617795542, 0.01671624816529241, -0.008979258934500155, -0.01999293305554982, 0.012255943824712892, 0.01371046086655598, 0.008495429445594985, -0.014090098257957363, -0.008115792054248505, -0.001837128659371073, 0.013786726439937782, 0.012832655313806137, -0.02478225309433661, -0.015267685710256041, 0.034590700180863514, 0.006229600126202026, -0.02555261459675305, -0.016677695655474972, 0.013160996436990624, 0.03447531810376348, -0.030958618885260615, -0.006752674592557221, -0.03501174030314584, 0.0747777152023077, -0.03301330030651016, -0.021432297578223777, 0.005508829902254696, 0.00352444544676099, 0.011341357865101459, -0.0026895481303466236, -0.0018494719209267544, -0.0068367729777926625, -0.01644949986440453, 0.0005999605801564914, -0.007910059947358876, 0.0013400002765926698, 0.014535691891358195, 0.02244316294922097, 0.009295656437220084, -0.0005105810447193651, -0.010910873884990147, -0.015184749626495596, 0.0018751589448171681, 0.011254777497714285, 0.0009760910048169622, -0.017006997263766067, 0.011282105437540458, 0.005696790654362937, 0.005073055643041875, 0.013842918118912102, -0.019169148294122522, -0.010063292539171213, 0.012906614415251106, 0.020432328231868153, -0.00024209884752630199, -0.009603683007878106, -0.012069870369392346, -0.014901837684522997, -0.002055841355641489, 0.016227876716794133, 0.0028133017839520645, -0.0042278632644167586, -0.002339292724833145, 0.0008350565848265847, -0.0005218833549089603, 0.011581118950641593, -0.00773480297106601, -0.013094168906668844, 0.006532445532162636, 0.003696266681144817, 0.004356844006692755, 0.0025731524075477082, -0.0037403724016027303, -0.023711611279407904, 0.005369049443384117, 0.005067157395947573, 0.009423089122900059, 0.0027095269385584023, -0.007048964571397187, -0.0020619331623210383, -0.0013717222496895834, 0.003672536967375602, -0.004338278508827783, -0.005018161967114265, 0.012225820310997384, 0.014164291439083753, 0.010859705405783083, -0.005738879552703436, -0.014201625732556086, -0.01574479701699059, 0.0014828700885111295, 0.014977170760870935, -0.0038804997667494425, -0.00036729348560698256, -0.004558332408547515, 0.0035852082508323734, 0.006181929412295222, 0.003842548071244482, -0.009981224071190915, -0.004881411686127021, 0.003268270399865141, 0.004871571251478803, 0.013417794065131104, -0.007752172625255432, -0.0044616312397090015, -0.008330201591608447, 0.010577488706739937, 0.006265415679590794, -0.015910673974631206, 0.006953483302664494, -0.004482872417709121, 0.0015543458307723755, -0.0036638490418571357, -0.003272243701982519, 0.002144499480746666, -0.012502364815254716, 0.019558903736853452, -0.0006823420069222714, -0.0035118358553288763, -0.0007093470663886964, 0.006011593734322147, -0.00826827203122837, 0.003418081743473525, -0.0007359636620870442, 0.00025484995193607416, 0.0013321121856054098, -0.0010313399793541594, 0.0020698474577460855, 0.0023566602505221065, -3.721704681745851e-06, -0.001700397695337018, -0.003323454025061418, -0.00036437694621903284, 0.0023997920857629744, 0.00624025776476432, -0.0011721394329995219, -0.00147193596288028, -0.007130751573103177, 0.004757112156681321, -0.0038389270941254997, 0.0016724770459905797, -0.007315428896780939, -0.0031211258279234353, 0.00048063975131534944, 0.016882516806925627, 0.0011512362030521956, -0.00025678542571574097, -0.011190973151958638, 0.007134812712252094, 0.012207576718824957, 0.002122225262823829, 0.0027200704253216566, -0.01627467511360319, -0.001882818162199559, -8.312990542616487e-05, 0.006511160114216296, -0.005632579594603042, -0.009682323543864453, -0.002157611722894644, 0.009507057200884158, 0.005834304231719822, 0.0038721992047832045, 0.004421893382519595, -0.02478326898992213, 0.0046599863331945775, 0.016586958150836835, 0.0029834211627192105, -0.006814632097307398, -0.0033406157646672353, -0.003994945136595203, 0.00098598412772425, 0.008014125254112825, 0.0038888514042903556, -0.006006679462105779, 0.00120202531749941, 0.009683061390555501, 0.00028616567095230804, 0.016447422250051826, -0.01789713978963803, -0.011896187584219437, -0.002233778648287572, 0.0032217668383207687, 0.011429903364435131, -0.0065248223735723835, -0.006605752623530837, -0.009415882890338035, 0.00943320889246412, -0.005567671735352739, 0.015217910222925946, -0.004714514058669461, -0.0047473844621229045, 0.007707639150532688, -0.002524967609720745, 0.016326152015482792, -0.00969853235512819, -0.012894429880423924, 0.0055429869069650965, 0.008426545643667856, 0.006110969625673725, -0.0026245707238199216, -0.016577458742093296, -0.006759601295406184, 0.006365663427787074, 0.002473551362067134, 0.00854268721568675, -0.012014978684545385, 0.003910262814674205, -0.000403802671273465, 0.009606780242032105, -0.0002452866962132049, -0.006797162146578491, -0.01657477003226995, 0.010238185685970402, 0.013149374309531654, 0.0027856557882696923, 0.01021359525187482, -0.024490154571627194, -0.010558163750372765, -0.011925024105142788, 0.01130036183183244, 0.005312333657088051, -0.012820088489702237, 0.006366563380463726, -0.016401943163323496, 0.029119888156725643, 0.006603129849678483, 0.0005973837458153462, -0.02198692596555982, 0.010494986280490172, 0.024888107417796367, -0.001200707163269963, 0.002567625793995345, -0.022357527476473394, -0.00465798865974178, 0.0040829117190592954, 0.008773893691273113, -8.583172322044577e-05, -0.0046039396308417075, -0.014590360962273148, -0.007119583905735617, 0.020152100356711146, 0.002384916622495068, -0.01397984856259927, -0.016373867160098855, 0.0034479175971316, 0.023593259833420175, 0.015508038871334073, -0.005273375681004197, -0.011258242405921767, -0.0006702191103715294, 0.006036626940883704, 0.005748458214541716, 0.005601382120257104, -0.003643790742942424, -0.01911640317595371, 0.011480827156252055, 0.0023001078281602726, 0.016000925564017294, 0.004335283287408063, -0.036352017090907976, -0.00397712481608224, 0.002023545155872909, 0.017239922393226872, 0.005032633462177262, -0.012040157186538225, -0.006946477412418802, 0.0068639363510777105, 0.012489228428419132, 0.0013037734995280917, 0.016832002091449333, -0.018353541354831093, 0.014264688598805291, -0.004247719889883889, -0.00020959755886042648, 0.019161478704096714, -0.03286372927137968, -0.00017825013173567166, -0.011513055779550047, 0.006114852739603595, 0.01894246755798561, -0.02166005657224757, -0.03267464156732516, 0.0477893563075119, -0.011616638820199292, -0.0053352045793652395, 0.005324520812764567, -0.009114981292245928, 0.0221495325171803, -0.004572345597785206, 0.027914476225655852, -0.014794716256611625, -0.03758484677695958, 0.037297742121681896, -0.0158320411813597, 0.010711041422186145, 0.03328155320614177, -0.05294280654130968, -0.033405831686856145, 0.0290693076917889, -0.010972708702838192, 4.1546987638960915e-05, 0.017499114307367787, -0.00565658004772189, 0.027342382644274476, -0.0045942167230942, 0.014114887062589627, -0.011372185729226374, -0.0014993714849784422, 0.004986270277777434, -0.014885865338610893, 0.001120454522114286, 0.01960501564730873, -0.03139221942757841, -0.014892518736427864, 0.001393380935550388, 0.007148446424673498, -0.01032700427924168, 0.02693817839326135, -0.00678364372997725, 0.028032218515710205, -0.035025756741929995, 0.020271206924680076, -0.030450624932569805, 0.0027868645200072617, 0.04186787159160838, -0.03906954117402091, 0.0008291474238377664, 0.03681018574194453, -0.029528410876988383, -0.004109292600045797, 0.011679609775375459, 0.02344073078583875, -0.031011047961004623, 0.03512034056025981, -0.002297476775771213, -0.032097454896449204, 0.0, 0.0, 0.0, 0.0], "intercept": 0.0991565955697501, "meta": {"alpha": 10.0, "n_features": 395, "trained_on": "CRISPROn/Kim seq_efficiency (n=11617)", "target": "out_of_frame efficiency/100", "goal": "oof", "cv_spearman": 0.667, "conformal": {"q80": 0.1728, "q90": 0.2314}}}