{"weights": [-0.002491798469136364, -0.011894333318718668, 0.005049942095440763, 0.00933618969241375, -0.003307957949389604, 0.0072235185360187415, -0.009937148984205058, 0.006021588397580814, 0.0007674714937007563, -0.007297589634486872, -0.0076336764247451755, 0.014163794565545548, 0.0036468255823226686, -0.0041353618676054985, 0.004133960381475579, -0.0036454240962443796, -0.008431135476582025, 0.015719677450483076, -0.008911081498757254, 0.0016225395248590378, -0.011758378855148608, 0.007548669386589983, 0.011056869245453292, -0.006847159776884902, -0.006879498127924745, 0.005946358325629271, 0.0006333829550427901, 0.0002997568472230378, -0.0036080268205449313, 0.0033224863129845683, -0.001825779774936392, 0.0021113202825044437, 0.013387180639599617, -0.0029943599870385783, -0.011757818263407882, 0.001364997610864113, 0.011721634413571162, -0.00028127067276391025, -0.008215047552535194, -0.003225316188294028, 0.0034701581237730206, -0.0034593398494245082, 0.008524816645598598, -0.008535634919966149, 0.009749106284816948, 0.0006806239146271684, -0.006125272336912057, -0.004304457862531397, -0.01221425690807044, 0.005014234611620992, 0.003053790036952902, 0.00414623225950892, 0.010457035218249564, -0.010129508811524832, -0.018911005675405414, 0.018583479268673386, 0.012968175256888634, -0.01776835399181605, -0.0035623014309180702, 0.008362480165854027, 0.0026592523242811553, 0.009167363419568133, -0.008440639527186673, -0.0033859762166387492, -0.006244109701861144, 0.011518819905151655, -0.0010938440810107934, -0.004180866122256967, -0.014029545552025461, 0.020828250161825015, 0.009054278247706778, -0.015852982857502352, -0.012871932230185906, 0.016373550841737146, 0.01890366891218148, -0.022405287523762762, -0.000936090355955633, -0.024636296382982877, 0.05187321374759613, -0.026300827008648355, -0.02194329068327484, 0.0161700493729845, 0.012534780107091172, -0.009253337265944036, 0.0075265481372489215, -0.006628333834530797, -0.021264128850502516, 0.008471581229062705, -0.00784437960822924, -0.0037736040376529787, -0.006834962907099366, 0.023502888648430975, 0.0189531642048682, 0.001455407035208102, 0.005627162666285892, -0.016699544213968305, -0.006585410311558943, -0.019544831329160357, 0.023332508489383553, -0.0005102247980430675, -0.0029581970329209954, 0.01636802521109991, -0.032938904788690486, 0.026752595146525414, -0.008497807672717449, -0.004428822830586221, -0.008504557482291779, 0.011494039001399144, 0.018808886510902345, 0.00030803931416630416, 0.010477277356856976, -0.02357261478433523, -0.002871167859817336, -0.009628671084484937, 0.01278600469513419, 0.0004813057428694604, 0.007131453423693851, -0.0005819892456970072, -0.007074048818849067, -0.006773004993640531, -0.004780790621478607, -0.014914850739177962, -0.011204891825982857, 0.023266856761881536, 0.004167330639952131, 0.02099014920175298, 0.009626896331176917, -0.020620581607346287, -0.0031756534035940636, 0.017814990611375908, -0.006177736615085615, -0.004814775010344602, 0.00382003568588571, -0.0009961908604996666, -0.007393703395273972, 0.0004344967022884288, -0.01075495725852197, -0.004644841418636643, -0.008108551286225209, 0.02764231034487585, 0.0016794394996593818, 0.003545719118241927, 0.012768909797842298, -0.021639492511984652, -0.016461320712441836, 0.028039528471932838, -0.014777411860686474, -0.005231931375384971, 0.011457128275335357, -0.02599243650324701, 0.010040382172692807, 0.020214603505704698, 0.015583573360031558, -0.005390152584767018, -0.0009948539869724415, -0.01810964828703507, -0.022337759778064226, 0.010891730002669995, 0.01678875292041971, -0.0037201836201838684, -0.03154265568673929, 0.020195574394364067, 0.0009172270795394477, -0.0013285246423182144, 0.010030853495788231, -0.01983807001014182, 0.009024823660917508, 0.008331062240025531, -0.005930241663126558, 0.007864040734105418, -0.013781261097227417, 0.022904331271700447, 0.02056254572617661, -0.0022751867927069632, 0.0044725933118230235, -0.02960711202217483, 0.0005235725464913269, -0.0017564883753881837, 0.010601712718979176, -0.01624829501799047, 0.0004983684997571394, 0.005250084865260781, 0.0011395606843822529, -0.0009416557237712865, -0.01083381657333992, 0.006648008011984819, -0.013243768554064035, 0.01806296007047927, 0.006203848706537407, -0.006819118188876681, -0.00032328462421313205, 0.0012383109537831235, -0.02035247517923656, 0.010459133411667581, 0.010349276087698093, -0.004063961140682525, 0.004493847737698427, -0.003834465941269723, 0.0030625649931266454, -0.0003994604765810082, 0.012357385594620051, -0.0042586765262080375, -0.026663770302476165, 0.016739281459137816, 0.01688842248650213, -0.005360350931219077, 0.0014941109582483228, -0.01091086223103038, -0.013804897168844194, 0.012001680053578767, 0.01256823113488855, 0.0026221666199643177, 0.012476381334119066, -0.026297913729487754, 0.0029485892271707928, 0.007878583181153703, 0.0010231812193959608, 0.008444018557534533, -0.008825726485841128, -0.012399291554492186, 0.012026969028894833, 0.005570944445600732, -0.014906141428737679, -0.0013267744349074947, -0.004274613931828638, 0.00047685082405599094, 0.014935774715810143, 0.0005836228055344023, -0.01647208780722738, -0.006956138537667309, 0.0007015833641239041, 0.02244537230800552, 0.0122182250155532, -0.004114486545395064, -0.02046980567511347, 0.0041510196524375135, 0.011998634847269509, 0.007134434409599146, 0.01335726424078999, -0.03571564968595426, -0.016832055307333078, 0.009159312884920232, 0.013505960829876483, -0.0023630602836961522, 0.02009146696768907, -0.020206669002196972, -0.0030868743228238296, -0.0002572634920925946, 0.003873754485727219, -0.005351674437305631, -0.0009431788602367308, 0.010945915457425901, 0.002615940138732176, 0.0170796544692141, -0.015601179983727712, -0.012630049544178837, -0.030603523930351987, 0.019730669724710412, 0.00755517570686751, 0.013066784783590153, 0.009074809834584687, -0.006391985800707509, -0.006237929838036129, 0.004235729718799865, 0.008119644369281247, -0.017813428997970407, -0.0027570997962514028, 0.006325612088016714, 0.0011948128184140515, 0.009488979685577258, 0.0044936439643769414, -0.019481894330911072, -0.0018499695602239793, -0.01342045130546482, 0.002114706788974275, 0.0009414571686346501, -0.012324526584787922, 0.004562768274404089, -0.014015440554959974, 0.026791433476951617, 0.009443365517154296, -0.0112447391777252, -0.007522124668345464, 0.012377288365874484, 0.01518816584610149, 0.009972913397261461, 0.0005118527589230147, -0.02152669974278656, -0.011463208472148564, 0.010399672338899714, -0.00525858356771443, 0.01677915491921294, -0.009580594824366948, -0.032687021940341246, 0.012972630456478807, 0.01916547749670949, -0.007552781165544838, -0.006142189212104725, -0.002156978955394064, -0.003059056342371273, 0.04156475971893333, 0.01066118482172994, -0.009119369364280094, -0.02452309590769218, -0.006394058708147022, -0.0024614103251484457, 0.003185116752068543, 0.018638527538108803, 0.012169357412210091, -0.011438982869455903, -0.005580622930623897, -0.012918105603947775, -0.007495829914527176, 0.009999275062251858, -0.010545397112664057, 0.004479650534042812, 0.004379783534739456, 0.013068481551926322, 0.0045002637640257845, -0.013586048684847047, -0.003068186308139035, -0.0009386869696177099, 0.0011556023453914287, 0.005510523256646226, 0.014793927311957208, 0.005764864903671078, -0.009970339911749738, -0.0014210888843111237, 0.013655537955032581, 0.004516573159784438, -0.04104526551265863, 0.014432514870639988, -0.031625388660721974, 0.002176068811311427, 0.04876615899798585, -0.02270281536522962, 0.0002483962236503411, 0.02880465839617438, -0.02494609763984399, -0.010351066681833224, -0.010472977817006507, 0.013927395545528146, -0.004059141877451404, 0.012123544054064926, 0.0033036176168116304, -0.016876317895888057, -0.012940564145709313, 0.025419420343772918, -0.007108581575474112, -0.005027485883990806, 0.05100008191069989, -0.04304488057349748, -0.03001759161942008, 0.03611513098990782, -0.007340022753287772, -0.012787062169217617, 0.02481040796805584, -0.014110462128009534, 0.01289236011989925, -0.0027640557981289423, 0.009289549999711984, -0.014422203806953832, -0.005052537485086189, 0.019239469540029742, -0.016954298578521942, 0.008791085786800665, 0.018403869030654975, -0.02609363909643418, -0.04266880813212496, 0.018238799165701043, 0.011884733260793059, -0.0003266565245507346, 0.03426555562132945, -0.028736116369617568, 0.023060489342875447, -0.012216377752841847, 0.011515675398980466, -0.0023064255828337044, -0.020277917259338002, 0.0299723363553608, -0.004048513244134855, -0.011832553596234245, 0.03720590840322654, -0.04373012908660997, -0.01394589110961834, 0.020747138349858526, 0.02587030671773111, -0.032671553957908626, 0.04661744506726904, -0.003691590291768829, -0.012177010749994709, 0.0, 0.0, 0.0, 0.0], "intercept": 0.4026828146373334, "meta": {"alpha": 20.0, "n_features": 395, "trained_on": ["doench2016_hg19", "chari2015Train", "doench2014-Hs"], "n": 5919, "target": "within-dataset percentile", "conformal": {"q80": 0.3688, "q90": 0.4296}}}