{"weights": [-0.0027513111151930983, -0.04378904305058086, 0.012968435781033304, 0.033571918384938365, 0.0007620333846777409, 0.006147758265775979, -0.006068585005476177, -0.0008412066449360563, 0.0030533055746037796, -0.010587867910822843, -0.0039239457056004, 0.0114585080418884, -0.004027210672072891, -0.011499639676004295, 0.008795053773679052, 0.006731796574377393, -0.0024930136300278295, 0.007338753164634978, -0.013317398017235494, 0.008471658482660757, -0.010696316989788695, 0.0009541291637030615, 0.00985751194335464, -0.00011532411722084937, -0.009271908909799858, 0.008359675387322204, -0.00471020648235927, 0.005622440004803195, -0.008469991525319498, 0.009901444836376847, -0.003364336752071021, 0.0019328834411113118, -0.004760482585109795, 0.005299483277594737, -0.014891006006111086, 0.01435200531364045, 0.015906935731343833, 0.006381359096136521, -0.022960090658263644, 0.0006717958306908306, 0.014233779703017273, -0.007390953086455721, -0.0045741552152462955, -0.0022686714014642007, 0.015295200684384816, 0.001009684140791107, -0.01685467263949384, 0.0005497878144240802, -0.009624985727121853, 0.00899986114596823, -0.0043917114906934585, 0.005016836071730876, 0.01918329635528398, -0.009060722934334213, -0.04213544133538855, 0.03201286791433759, 0.021879379135240858, -0.01009353590608402, -0.02631914076737583, 0.014533297538245695, 0.015650437400629533, 0.010783281974813623, -0.022529927775360694, -0.003903791599921269, -0.0022264687454134364, 0.023040554993145293, 0.022910309590768223, -0.04372439583858646, -0.022428233937907254, 0.05327459414722208, 0.005333198294149585, -0.03617955850347518, -0.023059610460537616, 0.01751852266277725, 0.05173889523153709, -0.046197807433901054, -0.012725924353050089, -0.04812425276811004, 0.10839425678871725, -0.04754407966748856, -0.03297338556951842, 0.012562286456450023, 0.005364617633969182, 0.012295170363828897, -0.006679690463265823, -0.006196401874498972, -0.008216090350698627, -0.022696860362269887, -0.00020850153675431774, -0.013702026403306146, 0.001676325998859545, 0.025202637722157535, 0.04062361095415804, 0.013483900087024365, -0.0048934382876491935, -0.015642154368606977, -0.023022946339562044, 0.0012185760872095665, 0.021467875680033877, 0.0010985279569799766, -0.0266393001197164, 0.017352439984048347, 0.004422847341898279, 0.011011771059452108, 0.01714374498716705, -0.02853658306408627, -0.013753375221458536, 0.01907762829290996, 0.03557180704664122, -0.0006223009180016162, -0.016061293506051996, -0.01972941926748374, -0.028443136801951742, 0.0044461701429263124, 0.022604371810672555, 0.004445900422991607, -0.007039195619690897, -0.0028399593015137293, -0.0025080488309374835, 0.0017993358412698858, 0.014101015766305718, -0.015383147236171563, -0.01499657603885158, 0.012354761803184308, 0.01735410598336677, 0.002277296718772357, 0.0036953068328242143, -0.011868201493037075, -0.032183443085567774, 0.008796692457418284, 0.006389097616551656, 0.012970442339567827, 0.004355055426773164, -0.011289603106455257, -0.002512964257816463, -0.0020521277385291492, 0.007425076094390486, -0.00525246703057241, -0.0064810928166307916, 0.013103537526476633, 0.01791029793430149, 0.015084130844285152, -0.01071243855926837, -0.0155501936449038, -0.018673121270030117, -0.002258446801275064, 0.015874136175063936, 0.00256441826620161, -0.0014077637173452605, -0.006424568026297551, 0.0029583772156076002, 0.012212707692727687, 0.004642995906226471, -0.012085057429525191, 0.003707555801940143, -0.009582892295823977, 0.004741572091407963, 0.021722201420846948, -0.01268255724924191, -0.005309557780374298, -0.015818851253566326, 0.013930427632718397, 0.008669112094158311, -0.017477005463066006, 0.014369926934248548, -0.008348230705161844, -0.004454624505653228, -0.000612942559764116, -0.004701409801491442, 0.0025360275462325854, -0.013108170235688379, 0.025131064434341807, -0.0031215747889909106, 0.0002414509134919056, 0.004183476164893225, -0.001418676406693443, -0.012751822468453336, 0.006307891747671619, -0.0010511771382426317, -0.0017768010508458624, -0.0001280803257374697, -0.0005571987778532099, 0.009499796681148285, -0.000454842190162107, 0.004573846106415077, -0.005121210030078828, -0.0146218610616513, 0.010459018502999382, -0.00016393483758779482, 0.009271961896650497, 0.00280890476659132, -0.006294491820883846, -0.01007276996884262, 0.002312881836689721, -0.001578763197809, 0.0008686598045995723, -0.009643622440398673, -0.003522748305610339, 0.0028811510669834407, 0.020186664515374295, 0.0022047943045109537, -0.0001496395691522491, -0.01742850035059747, 0.01200900886312181, 0.012751115519646574, 0.006658989315681469, 0.001235106475285552, -0.018712327869515395, -0.00446505289273636, -0.004579408279667115, 0.01225655267869274, -0.00797257409138628, -0.013289360252095142, 0.0022677953716496715, 0.0032944732399994296, 0.013026574918032644, 0.001201147960388901, 0.0037758876416799, -0.028902043258252852, 0.009034001650055742, 0.03246020091579071, 0.004917084362514728, -0.009609073318627906, -0.013416206646023391, -0.006366731011770304, 0.003616940503411386, 0.011887631117278868, 0.006769095122390233, -0.001039679283430984, -0.0017310795823366285, 0.0069985245710939715, 0.002153593390829415, 0.02275879936797289, -0.02326084268883294, -0.0175385743651551, -0.004919472972120937, -0.0011186093696690666, 0.013984028681330049, -0.00592173653840701, -0.006271886942542181, -0.012018527635224928, 0.012693481637536282, -0.004206280340120496, 0.01776510604092113, -0.008216353675406433, -0.007353599589112818, 0.008731807889848415, -0.0005528077117898603, 0.026637968989127608, -0.014879728844168981, -0.019021612513849023, 0.002689217153743846, 0.008892113005923803, 0.010549530936574637, -0.0023585876753978025, -0.01935172766853162, -0.006552149148753549, 0.0032565879390944177, 0.005097633391775161, 0.01349312850227951, -0.018781659032595162, 0.006877707967518682, -0.0016346162471771257, 0.014548251453080831, -0.0032852863030620387, -0.010452953761476591, -0.021124196849140048, 0.018007764274138072, 0.01899410875728568, 0.009318519000908998, 0.013269468213889992, -0.04103230815777425, -0.009037016501654522, -0.01840768881121678, 0.010493553585031113, 0.007326166000768023, -0.02164432532887976, 0.00794349291126158, -0.02230573643355284, 0.04500642999723278, 0.015830891849090194, 0.002577348571298394, -0.036089031373251555, 0.013289079462200896, 0.03403374633678907, -0.0011738756057210896, 0.005765772886443588, -0.03360880754581314, -0.012099486732957437, 0.011780946641537508, 0.016868405274331803, 0.0026334311723994704, -0.008050731348924627, -0.015355563411857518, -0.01078909486233683, 0.025134666688767265, 0.004720786052844035, -0.019495763295988167, -0.026537957082003107, -0.0008225070101852904, 0.03730881116434073, 0.012976844160254238, -0.005860494097406517, -0.012412293312779066, -0.004428133693184406, 0.009027811814234506, 0.003029763291962684, 0.014249937722224186, 0.0023124286070746835, -0.021076091648131266, 0.012032681673974489, -0.0033625545389833252, 0.013593779420968895, -0.0037409425695166627, -0.03670074392824641, 0.0005287663093907378, 0.004172363065732315, 0.026572504378152957, -0.0008916288130746463, -0.01531994109257912, 0.0013505345973960916, 0.0017384678999887145, 0.012459716560737128, 0.00010171834252180706, 0.007421274715287483, -0.008620765501009155, 0.0251940240585481, -0.013211251298143064, 0.010703299040123935, 0.01381707341114482, -0.04245174711891878, -0.004598553107639166, -0.021701577098211005, 0.01610577918307052, 0.027708316090484447, -0.026016309775281365, -0.031935277235388096, 0.06463848222855278, -0.029413857675970902, -0.005515816062568727, 0.0042055066161783144, 0.0024461350219238194, 0.02791378571533031, -0.011524872360311793, 0.033010338720774864, -0.019837360602288596, -0.033039613865216456, 0.042776945337469154, -0.027708802039498392, 0.006027337498993, 0.0398728841199835, -0.06191581541796488, -0.051650555527530784, 0.04741009473028725, -0.019166959631333164, 0.0009791864906707026, 0.030885603790409152, -0.00654478512371586, 0.044157983239633256, -0.015224207759236654, 0.012528372962498271, -0.02058649111353258, -0.001967217073685431, 0.015358533518830488, -0.01482303168595061, -0.0027602958303056136, 0.02871508869699611, -0.04731131968414292, -0.016881207769581807, -0.0009618516829634618, 0.012984955256778646, -0.018201506264723707, 0.03183340245073165, -0.003215109797644143, 0.03803601725138546, -0.049135787241626046, 0.024560668067167623, -0.03995682506719269, 0.005911887025505996, 0.06122316520609531, -0.05223878710129519, -0.0039904662203410005, 0.05146139725504658, -0.04142995136727833, -0.00657109068195169, 0.018463086922932834, 0.033957043553115566, -0.045849039794300425, 0.05242013047381473, -0.0034515755116549724, -0.052909154335479124, 0.0, 0.0, 0.0, 0.0], "intercept": 0.15161222479527206, "meta": {"alpha": 10.0, "n_features": 395, "trained_on": "CRISPROn/Kim seq_efficiency (n=11617)", "target": "total_indel_eff/100", "cv_spearman": 0.705, "conformal": {"q80": 0.2252, "q90": 0.2893}}}