{"weights": [-0.005703200120033385, -0.04282792337944599, 0.015698889515363367, 0.03283223398443165, 0.0006482296697712275, 0.006485732219700057, -0.006621331850459496, -0.000512630038939679, 0.0031101410451179912, -0.01119170398387081, -0.004301740719511411, 0.012383303658379044, -0.0015800431264290009, -0.01201031153542039, 0.008517441370028044, 0.005072913291894602, -0.0018228136823859576, 0.007588107711409204, -0.013894103634946212, 0.008128809605870278, -0.009510986811486042, -4.3425621884664545e-05, 0.00879763669139156, 0.0007567757419280019, -0.009570655851046423, 0.00860483087525317, -0.003974565154734866, 0.004940390130538366, -0.007682287866382593, 0.010077321346935347, -0.004147959782320685, 0.0017529263018240925, -0.004354707579088923, 0.004431380026624675, -0.015790635572673364, 0.015713963125165025, 0.01592150648711883, 0.006338604950035251, -0.023286453074187904, 0.0010263416370511805, 0.01429421832709371, -0.00743014675462652, -0.004574500831143984, -0.0022895707413403514, 0.015032279156988643, -0.00010091229049524488, -0.01634992092995482, 0.0014185540635794237, -0.010207370964922689, 0.009415301443696494, -0.004914213745969146, 0.005706283267195872, 0.018676529305057532, -0.009273100793150269, -0.041771600929624335, 0.03236817241755959, 0.0224023418315415, -0.010718311589428006, -0.02653284602897309, 0.014848815786635619, 0.014889037954129622, 0.011725430532603755, -0.02233639619498496, -0.004278072291612296, -0.001789300892564041, 0.021669069879321202, 0.02395108170747694, -0.043830850694249884, -0.021926898666346006, 0.05252618541512109, 0.005344718478925639, -0.03594400522775245, -0.024412650887090766, 0.01638206343695656, 0.050488355283619, -0.04245776783363214, -0.012430165002333812, -0.043361336368113644, 0.10837164207747917, -0.05258014070699717, -0.03327388863472539, 0.007419126767865714, 0.007514557321936045, 0.012637004424776086, -0.007047403502050842, -0.00404606140397045, -0.010405877871222323, -0.02132858060238197, 0.001963908959969259, -0.01214494092021271, 0.0011927911703093798, 0.02468713030520745, 0.039005612846512154, 0.015257607775904194, -0.004922802471521056, -0.016508184166504503, -0.02488602365849711, 0.0033550131040910587, 0.0205231694219596, 0.0016560708022248885, -0.02419247409710933, 0.017478201182982878, 0.0017737558773716145, 0.011426249256351079, 0.014887659512199884, -0.031966285021973594, -0.009739674837872163, 0.020196968497174853, 0.03730097928844848, -5.863324898888966e-05, -0.01685899118096162, -0.020895984897401985, -0.02757130590832375, 0.004032022425530017, 0.022233039116918353, 0.004416385411022447, -0.008730128469081859, -0.0011866701111144507, -0.0009602545289168816, -0.0003146508747950108, 0.015331476450079738, -0.017881935031121926, -0.014332515282069573, 0.0125812331436583, 0.01938991480090308, 0.0030262711812808736, 0.0015771720641469128, -0.011610054387942903, -0.030572901864993788, 0.007592653196137343, 0.006629483184333609, 0.014770722358117199, 0.004045867580476018, -0.009843030002468278, -0.0037006026875035986, -0.002512546425977155, 0.007065780969832172, -0.004549157679015841, -0.005160723566522613, 0.011161541645727618, 0.017638439632276463, 0.014387642196761209, -0.011662260565185243, -0.015290907971929306, -0.014231133480355705, -0.005494829999520798, 0.013191693180241474, 0.004711456617209614, -0.0026809910744765375, -0.00457329894144422, 0.006094921181404052, 0.008747476545985048, 0.008017861275729413, -0.01437820181835348, 0.003429552169316277, -0.010963315261596664, -0.0006167235323097, 0.024402905137386337, -0.013918529839563282, -0.001738842159580916, -0.016077305196695077, 0.013167937783505633, 0.010466531424236395, -0.017068150822497033, 0.011671282693896199, -0.009224494839617415, -0.006531891780856456, 0.004041678304646296, -0.006698490064549772, 0.0061756860283725765, -0.01425958258367283, 0.023580023311263153, 0.001533856716308628, -0.0015142980969830783, 0.0063503777856280565, -0.005613160662914994, -0.012548320425231678, 0.003802556538230744, 0.0003144306929539685, -0.0011393226570706651, -0.001906311293523173, 0.00048436679434101366, 0.011528925007494915, -0.001502149633016106, 0.005835668384891352, -0.00639400344361899, -0.01454602264438064, 0.011129792548431003, 0.000936675467439063, 0.012184401458000132, -0.0014452928384476804, -0.006735393956503684, -0.008369709117591996, 0.003623616612954431, -0.003291406755851143, 0.00035521139409666174, -0.008584759446498126, -0.005896944584438698, 0.004490669712871238, 0.020068355664945626, 0.0017959653033169183, -0.002423521366878827, -0.017161613786965336, 0.013641210068156804, 0.01080379568169308, 0.009128229364978417, 0.0001717152572378781, -0.018350814002069817, -0.005910119924493229, -0.004320103242431721, 0.011215709989237505, -0.005340194401386492, -0.014030126995684213, 0.0021336422174123917, 0.003498956112353604, 0.012828908692557933, 0.0015781682409883365, 0.004019361779776042, -0.02728551683202268, 0.005897351238557711, 0.03428358516625032, 0.004505704195240301, -0.01071560234366477, -0.012359723892695573, -0.005464650338873462, 0.003409849927022077, 0.011548951111059804, 0.006427355787833559, -0.0007406638455137474, -5.435512198539479e-05, 0.0050326983491566155, 0.002100925568355559, 0.0222843310695845, -0.024098104516866312, -0.017183451936701167, -0.0042892276900979975, -0.0017847985580719445, 0.013312462957174238, -0.003972698354627113, -0.006528624407421478, -0.011908781854664518, 0.009436126604873394, -0.0022748377217934614, 0.01904171129870804, -0.007191315624308583, -0.005497201422021725, 0.0064017674391710876, -0.0011433971475277856, 0.02593978405309865, -0.015996397775512348, -0.018037608510371825, 0.0035197214017044878, 0.008192592582883986, 0.011956560302185264, -0.0024392421370600503, -0.01999948148935428, -0.005133285976835115, 0.002597365661120586, 0.0045338414226713565, 0.013034358050019873, -0.018735679418200223, 0.006163503432260669, -0.0026396443992200884, 0.015110908094753635, -0.003938182384303758, -0.008819471133321955, -0.021493834482070606, 0.017901567069666068, 0.017599776814367005, 0.009473903483688643, 0.014685423712695602, -0.040340549947261904, -0.010220076178077792, -0.01725072588230104, 0.009520926996991953, 0.007742504098466689, -0.019604362964061168, 0.007184539088110908, -0.02146883703623866, 0.04330396235591447, 0.014822811526344995, 0.002813998640067849, -0.03603563060339841, 0.013484606691017283, 0.03367815692090794, -0.002020912639055086, 0.006211939713071057, -0.032162900727783904, -0.010455141632170342, 0.009720244147177239, 0.014885614229648217, 0.004525812560455225, -0.008828753373694723, -0.01428367626842301, -0.011342207449404807, 0.025181536298344468, 0.0036829951651488656, -0.019860474149028723, -0.02521409845226423, -0.0003800234934244338, 0.038003241672376814, 0.013705594680874945, -0.004862154356937162, -0.014478509578696796, -0.004132727103898496, 0.0071181228417017475, 0.004846778136027923, 0.014570167957761586, 0.00249828182465303, -0.018675327001831207, 0.010451574457003494, -0.004992840869221329, 0.016235434354666022, -0.005367944518241505, -0.03679833625856234, -0.0006019996067716905, 0.00028804887868045105, 0.028650579210916436, -0.0008364125294519271, -0.013253399773443553, 0.0024048111395235474, 0.0023882243842934386, 0.011925328378206111, -0.0018293259478769155, 0.00926017734712954, -0.009433564729497591, 0.026236875105086536, -0.0143380571902443, 0.009672114961351166, 0.016156449879622076, -0.04229521246889162, -0.005869748566993931, -0.023126404340620927, 0.012557960344951807, 0.02808409069313975, -0.021793718989131145, -0.03123485905427057, 0.06262770192463246, -0.02846625365235155, -0.00471589011055142, 0.0043977718228303785, 0.0023215764313929484, 0.025612142115282455, -0.010662420490231169, 0.03274437666340965, -0.01813538974201189, -0.03135298783525177, 0.04069508262129307, -0.02783418809834503, 0.0057122968010891945, 0.03955181785124975, -0.06126077724817815, -0.05160170815622844, 0.046944300678272904, -0.020725530236660124, 0.003456039048299981, 0.03383717050022475, -0.0065111889100062225, 0.04056515463536966, -0.015364950810582964, 0.010424509909691937, -0.02199272828535874, -0.00018441769014217847, 0.0170973545447115, -0.017072623140799676, -0.0020583200459784465, 0.030833148575152156, -0.04764621061603999, -0.017318970827508787, 9.316745991151414e-05, 0.014485605147471742, -0.0216724526668907, 0.03001436002608703, -0.002248541504796061, 0.039103216713285045, -0.05048697179755003, 0.023690530887619132, -0.0375429179613169, 0.007129581921847651, 0.05721116043549822, -0.04881608508848119, -0.0036630443619511265, 0.04765323829488921, -0.0376318766780701, -0.006016797673221114, 0.018286855520143544, 0.03267349667497802, -0.04494355452244481, 0.05096035219310246, -0.003434215690028121, -0.05190623284868661, 0.0, 0.0, 0.0, 0.0, 0.01148619165924657, -0.0043586733975558315, 0.00995226325698832, -0.017079781518666296, -0.0006002882224554518, -0.001923307090846712, 0.014432823717597952, -0.011909228404313587, 0.0004014921584609587, 0.001454309734648545, 0.004357621076188604, -0.0062134229693314846, 0.003368675055222999, 0.006433284645012924, 0.003104093800570923, -0.012906053500846237, -0.0027481328762783354, 0.0045989955747979365, 0.009996286136974309, -0.011847148835461174, -0.0028209793263604755, 0.008582773695548425, 0.00262751454324653, -0.008389308912388588, -0.003415808936082558, -0.008470887591910756, 0.03454303640214552, -0.022656339874176208, 0.0, 0.0, 0.0, 0.0, 0.0, 0.0, 0.0, 0.0, 0.002802355462802819, 0.024398366016109164, -0.03659677203992707, 0.00939605056101161, 0.01280228654462748, -0.016879670489485285, 0.015216415069365928, -0.011139031124471952, -0.009838818581571403, -0.005814964322014235, 0.0252371306959647, -0.00958334779236862, -0.0034085440431766392, 0.0074104779601602945, 0.008874651609193896, -0.012876585526134632, 0.0, 0.0, 0.0, 0.0, 0.0, 0.0, 0.0, 0.0], "intercept": 0.1622614821657789, "meta": {"alpha": 10.0, "n_features": 455, "trained_on": "CRISPROn/Kim seq_efficiency (n=11617)", "target": "total_indel_eff/100", "goal": "cutting", "cv_spearman": 0.727, "conformal": {"q80": 0.2195, "q90": 0.2829}}}