{"weights": [-0.003157447330195433, -0.02726891843235682, 0.010567000745009833, 0.01985936501758355, -0.001206396812710237, 0.005412672592937431, -0.0028328876696831697, -0.0013733881105476291, 0.0021377900864904325, -0.0067064819681156, -0.002965275228950021, 0.007533967110826918, -0.0021215372385244642, -0.008212855140868893, 0.0063120651594559376, 0.004022327219952111, -0.002574754563765413, 0.004926123223545578, -0.00813589400638518, 0.005784525346568427, -0.0065351883309687515, -0.00037581183002442765, 0.005182491309491296, 0.0017285088514927512, -0.005492982366066039, 0.004884684512643583, -0.004861242176093566, 0.00546954002944111, -0.003915451818819585, 0.007043029241654578, -0.0036782640878574692, 0.0005506866650491528, -0.000852655730475424, 0.0028775326858980917, -0.012478853893873968, 0.010453976938441066, 0.008979944654014416, 0.005056974748151724, -0.015833072994950056, 0.0017961535926891061, 0.009714427149647395, -0.004212472541170285, -0.0007842410327757583, -0.004717713575699717, 0.010398641956448051, 0.00032248838482789856, -0.013007625625466155, 0.0022864952842144557, -0.00620534758646094, 0.006519669134270344, -0.004762842659462752, 0.004448521111514148, 0.007635186038092843, -0.006251490855936246, -0.02422123896723102, 0.02283754378502394, 0.017076759235827844, -0.00944062847179447, -0.020071420095014017, 0.012435289330936915, 0.013226139915397747, 0.009051220861823821, -0.013986614373242834, -0.008290746403987354, -0.0016135167694479658, 0.012908587307521036, 0.013519326166507951, -0.024814396704554716, -0.014929855888812313, 0.034051179261532956, 0.006264970741558093, -0.025386294114424047, -0.01759943550751184, 0.012283890874272995, 0.033571861763351495, -0.02825631713012955, -0.006621821858153585, -0.03136632749475722, 0.07476923170200886, -0.036781082349036556, -0.021393023429283682, 0.0019725674737707624, 0.004899070098534008, 0.01136393852676411, -0.003207858147177774, -0.00032778431283157447, -0.00836338221087055, -0.015369893761583953, 0.0023163217482779076, -0.006892836762025036, 0.0010784739148932661, 0.014065041843823761, 0.02107816301544824, 0.010660726193981226, -0.0004470494722506584, -0.011432474719559481, -0.016516210943003966, 0.003318279774579545, 0.010557582448621228, 0.0014339519071176515, -0.015100663046429938, 0.011280954685299159, 0.003833865631156608, 0.005398515322858549, 0.01228815378903419, -0.021518419529005996, -0.007283140807563124, 0.01368051887786197, 0.02146651028679423, 0.0002127031009617704, -0.010073582501209736, -0.01297901899709275, -0.014010104010678155, -0.0023409247397512363, 0.015858225931605175, 0.002630592905276261, -0.005749465396562271, -0.0011724119712717663, 0.0019823615540198705, -0.0017669661543743983, 0.012318953212983872, -0.00955424989376892, -0.012595943242651288, 0.006865964694487577, 0.0053190789557457045, 0.004854731463915648, 0.0010674209165273596, -0.003707264225411993, -0.0225258321684836, 0.004275457775749496, 0.005471536201941155, 0.01065730095229903, 0.0025449373589333272, -0.005989284697686433, -0.002914556277541886, -0.0018539515245941279, 0.0033309505575367117, -0.0038019423411126095, -0.004197851513968179, 0.010980908456980172, 0.01407518968824595, 0.010441892486594967, -0.006495022416765001, -0.013999732538101722, -0.012746465414106447, -0.000781510111792035, 0.013085555154126237, -0.0021323341920211104, -0.0012520693531116003, -0.003245571034679712, 0.005922628620547709, 0.0035011349908525254, 0.006428129286796591, -0.011684655683101387, -0.005083356739964061, 0.002203989129915823, 0.0010352171494879584, 0.015335924999521182, -0.008742335725224355, -0.0018442810772034653, -0.008425470578480228, 0.009954706575582924, 0.007431347900748156, -0.015495772228810895, 0.004893199503422096, -0.004884483560557225, 0.00026231802979272313, -0.0006468458027217796, -0.004778592934552789, 0.0045916936253499584, -0.013274746799141557, 0.018644137417859898, 0.002817881643574441, -0.00477723212771241, 0.0007198386925847289, 0.00296802064310168, -0.008056944062876258, 0.0015442376274585625, 0.00033792479256205144, 0.0006817992767612936, 6.159019718367053e-05, -0.00047090490213729007, 0.003838184323769035, 0.0014558148938680587, 0.0006482943436642917, -0.0024732912644604386, -0.0033843669982739125, 0.00034812174304280866, 0.0034316077031912723, 0.00844298778080215, -0.004470006205962329, -0.0019350492486138635, -0.005952825528509127, 0.0057564421225981335, -0.00500968990113611, 0.0012906214881952041, -0.006628795611487508, -0.004823005551551544, 0.001665116457364615, 0.016829713947315104, 0.000955189620027141, -0.001961484809135598, -0.010885422042024652, 0.008213453143238863, 0.010773775789501594, 0.003905580923987892, 0.0017511415918877596, -0.01587981164031701, -0.0027975223858976886, 6.475475997292577e-05, 0.0057668670361614785, -0.003886755140689836, -0.010574386784619791, -0.001839290752657228, 0.009603271729848989, 0.005687938493329196, 0.004141288765338416, 0.004434540698628519, -0.023720546941500786, 0.002665863583637316, 0.018210565059162367, 0.002396970042222329, -0.007482664819377546, -0.0026708933435763862, -0.0033370510174815108, 0.0008913428073303135, 0.007617756254053201, 0.0038078966101018456, -0.005628352282451593, 0.0023505134052224695, 0.008152454361070077, 0.00018235926432534681, 0.016105388865987346, -0.018613163666799017, -0.0113609514748314, -0.0019643467192095236, 0.002574441583617925, 0.011158834913045155, -0.005193500173045585, -0.006743622730896688, -0.009543383364020329, 0.007206936852653575, -0.004141109587024087, 0.016191983248075675, -0.0040188840157287355, -0.0033392518915209453, 0.005862295027743422, -0.0027166316617011437, 0.01613959194258687, -0.010639732653598797, -0.01213348633688845, 0.005849386015138874, 0.007821317393616925, 0.00709453607731487, -0.002595324729323711, -0.01703824231730253, -0.005807830559983035, 0.005917764490112726, 0.002086055979629531, 0.008202652046668521, -0.012201340301081989, 0.003571919788199393, -0.0011044923631889888, 0.010056401260957073, -0.0006474261674988649, -0.005745229707949558, -0.016863578035249415, 0.010248608285204288, 0.012451249442113411, 0.0027752145639530364, 0.01111917175939768, -0.024059140481277143, -0.011498476948512484, -0.01128404861475196, 0.010767453608793099, 0.005809724368062168, -0.011384537633747992, 0.005788085154034838, -0.015735134639716222, 0.02785125625373012, 0.00592112438358943, 0.0008696657299634456, -0.022004601961191535, 0.010450969188224529, 0.024597076236781947, -0.001625193125195211, 0.0027510440249028613, -0.021274406024947814, -0.003700443102759566, 0.0025865448608762553, 0.007494526203223334, 0.0012545580767609073, -0.00507542745213404, -0.013966171410234778, -0.007302868115715972, 0.02009297612211509, 0.0017231242727223488, -0.014083885514683732, -0.015645366434359237, 0.0037848887091102637, 0.02412950551804433, 0.016022883592240307, -0.0046177117481695775, -0.012697133577055998, -0.0003891504851825647, 0.004521990603676073, 0.007186731746441129, 0.00575718737090689, -0.003637299769774596, -0.017455808964908864, 0.010437262117787232, 0.0012152181451000694, 0.01776997879793826, 0.0033353713555371216, -0.036538543362396925, -0.004638226886090459, -0.0005173886275698604, 0.018649667867477515, 0.004927935124959556, -0.010624925033902072, -0.006295300068031088, 0.0074242269639577625, 0.012170971408792558, -7.375838928485473e-05, 0.018124532536098754, -0.01886638026268954, 0.014723270995014425, -0.004930202406665694, -0.0009307446777888102, 0.020638215732974266, -0.032593108670821457, -0.0011009767575296476, -0.012512004559770001, 0.0037125248733007716, 0.019218192433545767, -0.018709459151080222, -0.03216935780058851, 0.04631908213467275, -0.010925057093750233, -0.004838184009799574, 0.005414830840484989, -0.009208046364557654, 0.020545806510747118, -0.0038440036791945334, 0.02757420067410046, -0.013512087255596222, -0.036513048644876464, 0.03597026139284573, -0.01574952960276957, 0.01045223074703007, 0.03315726996945166, -0.052674367818265504, -0.03334022410927994, 0.028538627752380523, -0.011920677155214145, 0.0017924176233536282, 0.019662172672961633, -0.005575854683853005, 0.024672973981989726, -0.00470811270954445, 0.012798700377301854, -0.012454165894135255, -0.00012811904017199176, 0.006048555298572857, -0.016720084448516186, 0.001775283699857909, 0.020947683976790032, -0.03138917734250984, -0.01504670850612457, 0.002121648801860611, 0.008123723238706491, -0.012798099041908914, 0.02552801659584849, -0.005951306501739456, 0.02863696115734667, -0.03592978037709782, 0.01969559230146556, -0.02877649647966432, 0.0038101943550705357, 0.03884257158645001, -0.03679872224929396, 0.0012398266847657585, 0.0341983529509242, -0.026895774516497547, -0.003657502765731932, 0.011503066093477734, 0.02256747477645122, -0.030413038104264156, 0.03407054086910142, -0.0022953666905910666, -0.03154884356537966, 0.0, 0.0, 0.0, 0.0, 0.005354254303365715, -0.001585508492649765, 0.007965226488252196, -0.01173397229895581, -0.0013348998463680595, -0.000478850218300014, 0.011149993616137006, -0.00933624355146588, -0.0020211538773416697, 0.001816564170034544, 0.0036435902363855317, -0.0034390005291017236, 0.0016641243063704398, 0.005900137203739985, 0.003191986612166966, -0.010756248122297633, -0.0037257322359254452, 0.0030058622769881757, 0.007929049578708524, -0.007209179619751302, -0.0018009198821283046, 0.006069529166418225, 0.0016822244116473121, -0.005950833695899073, -0.0028744702611116194, -0.004817078046430171, 0.024793921751583493, -0.017102373444074084, 0.0, 0.0, 0.0, 0.0, 0.0, 0.0, 0.0, 0.0, 0.0003922940765613304, 0.015722192830672714, -0.025211449520914014, 0.00909696261365789, 0.010043425297325713, -0.00962127019683734, 0.008997196886878913, -0.00941935198734386, -0.006671400570174645, -0.004820663740029996, 0.01750097018170812, -0.006008905871481947, -0.003688479504549495, 0.00604377515334091, 0.0052829625004901315, -0.007638258149244342, 0.0, 0.0, 0.0, 0.0, 0.0, 0.0, 0.0, 0.0], "intercept": 0.10822386503336229, "meta": {"alpha": 10.0, "n_features": 455, "trained_on": "CRISPROn/Kim seq_efficiency (n=11617)", "target": "out_of_frame efficiency/100", "goal": "oof", "cv_spearman": 0.687, "conformal": {"q80": 0.1697, "q90": 0.2249}}}